# milady test
        # 
        # LAMMPS SNAP coefficients for W
        
        1 56
        W 0.5 1
-5.30602553034076     
2.582686725924538E-002
2.224885169139983E-002
5.191964771148441E-002
-1.527058895711284E-002
0.278235881892239     
6.578117448684848E-002
3.420633249320007E-004
-6.368109665587245E-003
0.127078516812206     
0.100290580638965     
5.178924471160877E-002
9.899491574664535E-002
2.598167940178111E-003
-2.032368865008091E-002
2.979540058505745E-002
-6.880889836140219E-003
6.777101522503368E-002
8.995079746849168E-002
9.523088038395848E-003
3.626871914982141E-002
9.428549782000617E-004
9.936827137061755E-003
-1.649808169814457E-003
6.760595070527717E-002
0.107769098477207     
7.032314549205808E-002
6.132904803027173E-002
-2.768473563212850E-002
3.604513251781793E-002
5.049026803602044E-002
6.772695259327580E-003
-1.034095178466267E-002
-2.036858112880725E-002
2.389291151142737E-002
0.101190206296234     
2.915364715919532E-003
1.145991243211097E-002
5.583986675381963E-002
6.680854163735799E-003
3.038678638443048E-002
2.076932916657881E-002
1.257161027190276E-002
6.619236832484943E-004
7.361354220908996E-003
4.050818030102971E-002
-6.397916196715134E-003
1.318517713510617E-003
-1.593335919061610E-004
-2.341614382455594E-003
-2.517530561315911E-003
-8.119641831091928E-005
9.444672166130534E-003
1.731032692918163E-002
-5.656183205562021E-003
7.662906318196688E-003